<?xml version="1.0"?>
<opencv_storage>
<cascade>
  <stageType>BOOST</stageType>
  <featureType>HAAR</featureType>
  <height>40</height>
  <width>40</width>
  <stageParams>
    <boostType>GAB</boostType>
    <minHitRate>9.9500000476837158e-01</minHitRate>
    <maxFalseAlarm>5.0000000000000000e-01</maxFalseAlarm>
    <weightTrimRate>9.4999999999999996e-01</weightTrimRate>
    <maxDepth>1</maxDepth>
    <maxWeakCount>100</maxWeakCount></stageParams>
  <featureParams>
    <maxCatCount>0</maxCatCount>
    <featSize>1</featSize>
    <mode>BASIC</mode></featureParams>
  <stageNum>4</stageNum>
  <stages>
    <!-- stage 0 -->
    <_>
      <maxWeakCount>2</maxWeakCount>
      <stageThreshold>-7.6494507491588593e-02</stageThreshold>
      <weakClassifiers>
        <_>
          <internalNodes>
            0 -1 3 -1.6964126378297806e-02</internalNodes>
          <leafValues>
            9.3495935201644897e-01 -9.8870056867599487e-01</leafValues></_>
        <_>
          <internalNodes>
            0 -1 1 2.4860764387995005e-03</internalNodes>
          <leafValues>
            -9.7884225845336914e-01 9.1220605373382568e-01</leafValues></_></weakClassifiers></_>
    <!-- stage 1 -->
    <_>
      <maxWeakCount>2</maxWeakCount>
      <stageThreshold>-1.0275010019540787e-01</stageThreshold>
      <weakClassifiers>
        <_>
          <internalNodes>
            0 -1 6 1.6437355428934097e-02</internalNodes>
          <leafValues>
            -9.2391306161880493e-01 9.4827586412429810e-01</leafValues></_>
        <_>
          <internalNodes>
            0 -1 2 -2.8431843966245651e-02</internalNodes>
          <leafValues>
            8.2116293907165527e-01 -9.7872155904769897e-01</leafValues></_></weakClassifiers></_>
    <!-- stage 2 -->
    <_>
      <maxWeakCount>2</maxWeakCount>
      <stageThreshold>-7.6756089925765991e-02</stageThreshold>
      <weakClassifiers>
        <_>
          <internalNodes>
            0 -1 4 4.4152826070785522e-02</internalNodes>
          <leafValues>
            -9.5555555820465088e-01 9.3333333730697632e-01</leafValues></_>
        <_>
          <internalNodes>
            0 -1 5 2.8683487325906754e-02</internalNodes>
          <leafValues>
            -9.3852353096008301e-01 8.7879943847656250e-01</leafValues></_></weakClassifiers></_>
    <!-- stage 3 -->
    <_>
      <maxWeakCount>2</maxWeakCount>
      <stageThreshold>-7.9162433743476868e-02</stageThreshold>
      <weakClassifiers>
        <_>
          <internalNodes>
            0 -1 0 -1.4099875465035439e-02</internalNodes>
          <leafValues>
            8.8429754972457886e-01 -9.3296086788177490e-01</leafValues></_>
        <_>
          <internalNodes>
            0 -1 7 -1.1733764782547951e-02</internalNodes>
          <leafValues>
            8.5379844903945923e-01 -9.4011706113815308e-01</leafValues></_></weakClassifiers></_></stages>
  <features>
    <_>
      <rects>
        <_>
          2 19 10 12 -1.</_>
        <_>
          2 19 5 6 2.</_>
        <_>
          7 25 5 6 2.</_></rects>
      <tilted>0</tilted></_>
    <_>
      <rects>
        <_>
          3 30 27 2 -1.</_>
        <_>
          3 31 27 1 2.</_></rects>
      <tilted>0</tilted></_>
    <_>
      <rects>
        <_>
          13 2 3 24 -1.</_>
        <_>
          13 14 3 12 2.</_></rects>
      <tilted>0</tilted></_>
    <_>
      <rects>
        <_>
          14 19 10 14 -1.</_>
        <_>
          14 19 5 7 2.</_>
        <_>
          19 26 5 7 2.</_></rects>
      <tilted>0</tilted></_>
    <_>
      <rects>
        <_>
          16 18 20 16 -1.</_>
        <_>
          16 18 10 8 2.</_>
        <_>
          26 26 10 8 2.</_></rects>
      <tilted>0</tilted></_>
    <_>
      <rects>
        <_>
          17 8 20 6 -1.</_>
        <_>
          27 8 10 6 2.</_></rects>
      <tilted>0</tilted></_>
    <_>
      <rects>
        <_>
          18 14 4 21 -1.</_>
        <_>
          20 14 2 21 2.</_></rects>
      <tilted>0</tilted></_>
    <_>
      <rects>
        <_>
          32 17 6 20 -1.</_>
        <_>
          32 17 3 10 2.</_>
        <_>
          35 27 3 10 2.</_></rects>
      <tilted>0</tilted></_></features></cascade>
</opencv_storage>
